<?xml version="1.0"?>
<opencv_storage>
<cascade>
  <stageType>BOOST</stageType>
  <featureType>HAAR</featureType>
  <height>30</height>
  <width>60</width>
  <stageParams>
    <boostType>GAB</boostType>
    <minHitRate>9.9500000476837158e-01</minHitRate>
    <maxFalseAlarm>5.0000000000000000e-01</maxFalseAlarm>
    <weightTrimRate>9.4999999999999996e-01</weightTrimRate>
    <maxDepth>1</maxDepth>
    <maxWeakCount>100</maxWeakCount></stageParams>
  <featureParams>
    <maxCatCount>0</maxCatCount>
    <featSize>1</featSize>
    <mode>BASIC</mode></featureParams>
  <stageNum>20</stageNum>
  <stages>
    <!-- stage 0 -->
    <_>
      <maxWeakCount>1</maxWeakCount>
      <stageThreshold>7.5438594818115234e-01</stageThreshold>
      <weakClassifiers>
        <_>
          <internalNodes>
            0 -1 14 -8.9041143655776978e-03</internalNodes>
          <leafValues>
            7.5438594818115234e-01 -1.</leafValues></_></weakClassifiers></_>
    <!-- stage 1 -->
    <_>
      <maxWeakCount>2</maxWeakCount>
      <stageThreshold>2.0078539848327637e-02</stageThreshold>
      <weakClassifiers>
        <_>
          <internalNodes>
            0 -1 51 2.1778619848191738e-03</internalNodes>
          <leafValues>
            -7.4074071645736694e-01 8.6956518888473511e-01</leafValues></_>
        <_>
          <internalNodes>
            0 -1 16 6.7281387746334076e-03</internalNodes>
          <leafValues>
            -8.4948664903640747e-01 7.7840280532836914e-01</leafValues></_></weakClassifiers></_>
    <!-- stage 2 -->
    <_>
      <maxWeakCount>1</maxWeakCount>
      <stageThreshold>5.1515150070190430e-01</stageThreshold>
      <weakClassifiers>
        <_>
          <internalNodes>
            0 -1 57 1.6016542911529541e-02</internalNodes>
          <leafValues>
            -1. 5.1515150070190430e-01</leafValues></_></weakClassifiers></_>
    <!-- stage 3 -->
    <_>
      <maxWeakCount>2</maxWeakCount>
      <stageThreshold>1.5736961737275124e-02</stageThreshold>
      <weakClassifiers>
        <_>
          <internalNodes>
            0 -1 4 -1.6139317303895950e-02</internalNodes>
          <leafValues>
            7.7358490228652954e-01 -8.7234044075012207e-01</leafValues></_>
        <_>
          <internalNodes>
            0 -1 17 2.5186127051711082e-02</internalNodes>
          <leafValues>
            -7.5784796476364136e-01 9.0340727567672729e-01</leafValues></_></weakClassifiers></_>
    <!-- stage 4 -->
    <_>
      <maxWeakCount>4</maxWeakCount>
      <stageThreshold>5.0082437694072723e-02</stageThreshold>
      <weakClassifiers>
        <_>
          <internalNodes>
            0 -1 22 -1.7985943704843521e-03</internalNodes>
          <leafValues>
            6.9565218687057495e-01 -5.9259259700775146e-01</leafValues></_>
        <_>
          <internalNodes>
            0 -1 54 -9.0253379312343895e-05</internalNodes>
          <leafValues>
            5.5163633823394775e-01 -8.0245614051818848e-01</leafValues></_>
        <_>
          <internalNodes>
            0 -1 26 -6.4999617636203766e-02</internalNodes>
          <leafValues>
            8.7442767620086670e-01 -5.0644564628601074e-01</leafValues></_>
        <_>
          <internalNodes>
            0 -1 15 -1.2178898323327303e-03</internalNodes>
          <leafValues>
            6.6333210468292236e-01 -6.8137127161026001e-01</leafValues></_></weakClassifiers></_>
    <!-- stage 5 -->
    <_>
      <maxWeakCount>4</maxWeakCount>
      <stageThreshold>-9.5257461071014404e-03</stageThreshold>
      <weakClassifiers>
        <_>
          <internalNodes>
            0 -1 47 2.0764245709870011e-04</internalNodes>
          <leafValues>
            5.5172413587570190e-01 -7.6190477609634399e-01</leafValues></_>
        <_>
          <internalNodes>
            0 -1 19 -1.3521998189389706e-03</internalNodes>
          <leafValues>
            6.0233193635940552e-01 -7.2147011756896973e-01</leafValues></_>
        <_>
          <internalNodes>
            0 -1 23 1.4788523316383362e-02</internalNodes>
          <leafValues>
            -6.0750943422317505e-01 5.9384775161743164e-01</leafValues></_>
        <_>
          <internalNodes>
            0 -1 30 -5.9288777410984039e-03</internalNodes>
          <leafValues>
            8.8405787944793701e-01 -4.3362748622894287e-01</leafValues></_></weakClassifiers></_>
    <!-- stage 6 -->
    <_>
      <maxWeakCount>4</maxWeakCount>
      <stageThreshold>-2.4375227093696594e-01</stageThreshold>
      <weakClassifiers>
        <_>
          <internalNodes>
            0 -1 43 1.4262204989790916e-02</internalNodes>
          <leafValues>
            -5.6363636255264282e-01 6.8888890743255615e-01</leafValues></_>
        <_>
          <internalNodes>
            0 -1 45 -1.6592088286415674e-05</internalNodes>
          <leafValues>
            -7.8074997663497925e-01 4.5423170924186707e-01</leafValues></_>
        <_>
          <internalNodes>
            0 -1 31 -2.2812301758676767e-03</internalNodes>
          <leafValues>
            6.4542925357818604e-01 -5.8786869049072266e-01</leafValues></_>
        <_>
          <internalNodes>
            0 -1 34 -1.6214176139328629e-04</internalNodes>
          <leafValues>
            -7.7977687120437622e-01 5.6250512599945068e-01</leafValues></_></weakClassifiers></_>
    <!-- stage 7 -->
    <_>
      <maxWeakCount>4</maxWeakCount>
      <stageThreshold>1.5198474749922752e-02</stageThreshold>
      <weakClassifiers>
        <_>
          <internalNodes>
            0 -1 41 -1.0081266518682241e-03</internalNodes>
          <leafValues>
            7.5609755516052246e-01 -5.2542370557785034e-01</leafValues></_>
        <_>
          <internalNodes>
            0 -1 29 -6.5177257056348026e-05</internalNodes>
          <leafValues>
            5.8866202831268311e-01 -7.4628585577011108e-01</leafValues></_>
        <_>
          <internalNodes>
            0 -1 27 -5.8824043720960617e-02</internalNodes>
          <leafValues>
            -8.0639314651489258e-01 4.8095628619194031e-01</leafValues></_>
        <_>
          <internalNodes>
            0 -1 13 7.4559196946211159e-05</internalNodes>
          <leafValues>
            -4.7556948661804199e-01 8.1508868932723999e-01</leafValues></_></weakClassifiers></_>
    <!-- stage 8 -->
    <_>
      <maxWeakCount>2</maxWeakCount>
      <stageThreshold>1.1776010692119598e-01</stageThreshold>
      <weakClassifiers>
        <_>
          <internalNodes>
            0 -1 2 2.9242197051644325e-03</internalNodes>
          <leafValues>
            -3.4246575832366943e-01 9.2592591047286987e-01</leafValues></_>
        <_>
          <internalNodes>
            0 -1 33 2.2645709395874292e-04</internalNodes>
          <leafValues>
            4.7346350550651550e-01 -8.0816578865051270e-01</leafValues></_></weakClassifiers></_>
    <!-- stage 9 -->
    <_>
      <maxWeakCount>4</maxWeakCount>
      <stageThreshold>-1.1595767736434937e-01</stageThreshold>
      <weakClassifiers>
        <_>
          <internalNodes>
            0 -1 42 -2.5969427078962326e-02</internalNodes>
          <leafValues>
            6.4705884456634521e-01 -6.7346936464309692e-01</leafValues></_>
        <_>
          <internalNodes>
            0 -1 37 9.7563235613051802e-05</internalNodes>
          <leafValues>
            5.3206098079681396e-01 -8.2550638914108276e-01</leafValues></_>
        <_>
          <internalNodes>
            0 -1 6 3.6084406077861786e-02</internalNodes>
          <leafValues>
            -4.5421901345252991e-01 8.2260590791702271e-01</leafValues></_>
        <_>
          <internalNodes>
            0 -1 36 5.7857410865835845e-05</internalNodes>
          <leafValues>
            5.2602899074554443e-01 -7.6011598110198975e-01</leafValues></_></weakClassifiers></_>
    <!-- stage 10 -->
    <_>
      <maxWeakCount>4</maxWeakCount>
      <stageThreshold>-1.0832514613866806e-01</stageThreshold>
      <weakClassifiers>
        <_>
          <internalNodes>
            0 -1 58 -1.1379698116797954e-04</internalNodes>
          <leafValues>
            6.3265305757522583e-01 -6.0784316062927246e-01</leafValues></_>
        <_>
          <internalNodes>
            0 -1 38 -2.3398172925226390e-04</internalNodes>
          <leafValues>
            -9.5528751611709595e-01 4.1799879074096680e-01</leafValues></_>
        <_>
          <internalNodes>
            0 -1 5 2.1602446213364601e-04</internalNodes>
          <leafValues>
            -4.8972293734550476e-01 9.1840666532516479e-01</leafValues></_>
        <_>
          <internalNodes>
            0 -1 44 -3.2343508792109787e-05</internalNodes>
          <leafValues>
            6.7006921768188477e-01 -6.6925406455993652e-01</leafValues></_></weakClassifiers></_>
    <!-- stage 11 -->
    <_>
      <maxWeakCount>4</maxWeakCount>
      <stageThreshold>4.8131164163351059e-02</stageThreshold>
      <weakClassifiers>
        <_>
          <internalNodes>
            0 -1 25 -1.1997597757726908e-03</internalNodes>
          <leafValues>
            5.5172413587570190e-01 -7.6190477609634399e-01</leafValues></_>
        <_>
          <internalNodes>
            0 -1 10 -1.3904090039432049e-02</internalNodes>
          <leafValues>
            8.8308256864547729e-01 -4.6395206451416016e-01</leafValues></_>
        <_>
          <internalNodes>
            0 -1 21 1.1336313764331862e-04</internalNodes>
          <leafValues>
            6.0768854618072510e-01 -6.5301954746246338e-01</leafValues></_>
        <_>
          <internalNodes>
            0 -1 7 -3.4817849518731236e-04</internalNodes>
          <leafValues>
            6.6629946231842041e-01 -5.9987384080886841e-01</leafValues></_></weakClassifiers></_>
    <!-- stage 12 -->
    <_>
      <maxWeakCount>3</maxWeakCount>
      <stageThreshold>2.4579595029354095e-01</stageThreshold>
      <weakClassifiers>
        <_>
          <internalNodes>
            0 -1 35 -2.5098904734477401e-04</internalNodes>
          <leafValues>
            -7.3684209585189819e-01 4.5161288976669312e-01</leafValues></_>
        <_>
          <internalNodes>
            0 -1 9 -1.0164409875869751e-02</internalNodes>
          <leafValues>
            6.3691622018814087e-01 -6.2330484390258789e-01</leafValues></_>
        <_>
          <internalNodes>
            0 -1 46 2.9365054797381163e-04</internalNodes>
          <leafValues>
            4.1852223873138428e-01 -8.4273320436477661e-01</leafValues></_></weakClassifiers></_>
    <!-- stage 13 -->
    <_>
      <maxWeakCount>3</maxWeakCount>
      <stageThreshold>-5.2445960044860840e-01</stageThreshold>
      <weakClassifiers>
        <_>
          <internalNodes>
            0 -1 49 1.0683137923479080e-02</internalNodes>
          <leafValues>
            -5.1851850748062134e-01 6.0869562625885010e-01</leafValues></_>
        <_>
          <internalNodes>
            0 -1 39 -4.6650471631437540e-05</internalNodes>
          <leafValues>
            -9.1387021541595459e-01 4.1805315017700195e-01</leafValues></_>
        <_>
          <internalNodes>
            0 -1 3 9.2910369858145714e-05</internalNodes>
          <leafValues>
            -4.2399424314498901e-01 8.6551439762115479e-01</leafValues></_></weakClassifiers></_>
    <!-- stage 14 -->
    <_>
      <maxWeakCount>2</maxWeakCount>
      <stageThreshold>-4.0122303366661072e-01</stageThreshold>
      <weakClassifiers>
        <_>
          <internalNodes>
            0 -1 8 2.1035393700003624e-02</internalNodes>
          <leafValues>
            5.0769233703613281e-01 -9.4285714626312256e-01</leafValues></_>
        <_>
          <internalNodes>
            0 -1 40 -6.8012130213901401e-05</internalNodes>
          <leafValues>
            -7.3645907640457153e-01 5.4163408279418945e-01</leafValues></_></weakClassifiers></_>
    <!-- stage 15 -->
    <_>
      <maxWeakCount>2</maxWeakCount>
      <stageThreshold>-3.7089932709932327e-02</stageThreshold>
      <weakClassifiers>
        <_>
          <internalNodes>
            0 -1 56 -3.8692267844453454e-04</internalNodes>
          <leafValues>
            -6.0784316062927246e-01 6.3265305757522583e-01</leafValues></_>
        <_>
          <internalNodes>
            0 -1 12 -9.0562461991794407e-05</internalNodes>
          <leafValues>
            7.6492869853973389e-01 -6.6974300146102905e-01</leafValues></_></weakClassifiers></_>
    <!-- stage 16 -->
    <_>
      <maxWeakCount>2</maxWeakCount>
      <stageThreshold>-3.6731485277414322e-02</stageThreshold>
      <weakClassifiers>
        <_>
          <internalNodes>
            0 -1 50 -1.0199237149208784e-03</internalNodes>
          <leafValues>
            -8.7878787517547607e-01 4.3283581733703613e-01</leafValues></_>
        <_>
          <internalNodes>
            0 -1 0 -1.1689997336361557e-04</internalNodes>
          <leafValues>
            9.2402100563049316e-01 -4.6956729888916016e-01</leafValues></_></weakClassifiers></_>
    <!-- stage 17 -->
    <_>
      <maxWeakCount>3</maxWeakCount>
      <stageThreshold>-7.6085042953491211e-01</stageThreshold>
      <weakClassifiers>
        <_>
          <internalNodes>
            0 -1 32 -7.9024879960343242e-04</internalNodes>
          <leafValues>
            -5.0819671154022217e-01 7.9487180709838867e-01</leafValues></_>
        <_>
          <internalNodes>
            0 -1 55 -4.6011566882953048e-04</internalNodes>
          <leafValues>
            -9.5804953575134277e-01 4.4566982984542847e-01</leafValues></_>
        <_>
          <internalNodes>
            0 -1 24 1.2223504018038511e-04</internalNodes>
          <leafValues>
            5.9944009780883789e-01 -6.9832354784011841e-01</leafValues></_></weakClassifiers></_>
    <!-- stage 18 -->
    <_>
      <maxWeakCount>4</maxWeakCount>
      <stageThreshold>-3.3549365401268005e-01</stageThreshold>
      <weakClassifiers>
        <_>
          <internalNodes>
            0 -1 11 -4.1981853544712067e-02</internalNodes>
          <leafValues>
            7.7272725105285645e-01 -6.0714286565780640e-01</leafValues></_>
        <_>
          <internalNodes>
            0 -1 48 -8.5873659700155258e-03</internalNodes>
          <leafValues>
            6.9961100816726685e-01 -6.0474991798400879e-01</leafValues></_>
        <_>
          <internalNodes>
            0 -1 52 1.3293205483932979e-05</internalNodes>
          <leafValues>
            5.0564217567443848e-01 -8.3977466821670532e-01</leafValues></_>
        <_>
          <internalNodes>
            0 -1 28 4.3426209595054388e-04</internalNodes>
          <leafValues>
            4.8820099234580994e-01 -9.3360400199890137e-01</leafValues></_></weakClassifiers></_>
    <!-- stage 19 -->
    <_>
      <maxWeakCount>4</maxWeakCount>
      <stageThreshold>-1.0370621830224991e-01</stageThreshold>
      <weakClassifiers>
        <_>
          <internalNodes>
            0 -1 53 3.1120165658649057e-05</internalNodes>
          <leafValues>
            4.0298506617546082e-01 -8.1818181276321411e-01</leafValues></_>
        <_>
          <internalNodes>
            0 -1 1 -4.6352371573448181e-02</internalNodes>
          <leafValues>
            7.6574772596359253e-01 -4.9082666635513306e-01</leafValues></_>
        <_>
          <internalNodes>
            0 -1 20 6.8892579292878509e-05</internalNodes>
          <leafValues>
            5.5464702844619751e-01 -6.2145036458969116e-01</leafValues></_>
        <_>
          <internalNodes>
            0 -1 18 6.0599428252317011e-05</internalNodes>
          <leafValues>
            -5.7051163911819458e-01 6.8323242664337158e-01</leafValues></_></weakClassifiers></_></stages>
  <features>
    <_>
      <rects>
        <_>
          0 22 1 6 -1.</_>
        <_>
          0 24 1 2 3.</_></rects>
      <tilted>0</tilted></_>
    <_>
      <rects>
        <_>
          1 2 24 23 -1.</_>
        <_>
          9 2 8 23 3.</_></rects>
      <tilted>0</tilted></_>
    <_>
      <rects>
        <_>
          1 11 9 9 -1.</_>
        <_>
          1 14 9 3 3.</_></rects>
      <tilted>0</tilted></_>
    <_>
      <rects>
        <_>
          2 2 16 2 -1.</_>
        <_>
          2 2 8 1 2.</_>
        <_>
          10 3 8 1 2.</_></rects>
      <tilted>0</tilted></_>
    <_>
      <rects>
        <_>
          2 2 16 24 -1.</_>
        <_>
          10 2 8 24 2.</_></rects>
      <tilted>0</tilted></_>
    <_>
      <rects>
        <_>
          2 3 12 4 -1.</_>
        <_>
          2 3 6 2 2.</_>
        <_>
          8 5 6 2 2.</_></rects>
      <tilted>0</tilted></_>
    <_>
      <rects>
        <_>
          2 6 55 20 -1.</_>
        <_>
          2 16 55 10 2.</_></rects>
      <tilted>0</tilted></_>
    <_>
      <rects>
        <_>
          3 5 44 2 -1.</_>
        <_>
          3 5 22 1 2.</_>
        <_>
          25 6 22 1 2.</_></rects>
      <tilted>0</tilted></_>
    <_>
      <rects>
        <_>
          3 11 42 5 -1.</_>
        <_>
          24 11 21 5 2.</_></rects>
      <tilted>0</tilted></_>
    <_>
      <rects>
        <_>
          4 0 18 30 -1.</_>
        <_>
          4 0 9 15 2.</_>
        <_>
          13 15 9 15 2.</_></rects>
      <tilted>0</tilted></_>
    <_>
      <rects>
        <_>
          4 1 26 14 -1.</_>
        <_>
          4 1 13 7 2.</_>
        <_>
          17 8 13 7 2.</_></rects>
      <tilted>0</tilted></_>
    <_>
      <rects>
        <_>
          4 9 33 11 -1.</_>
        <_>
          15 9 11 11 3.</_></rects>
      <tilted>0</tilted></_>
    <_>
      <rects>
        <_>
          5 21 20 2 -1.</_>
        <_>
          5 21 10 1 2.</_>
        <_>
          15 22 10 1 2.</_></rects>
      <tilted>0</tilted></_>
    <_>
      <rects>
        <_>
          6 4 1 4 -1.</_>
        <_>
          6 6 1 2 2.</_></rects>
      <tilted>0</tilted></_>
    <_>
      <rects>
        <_>
          7 0 32 18 -1.</_>
        <_>
          7 9 32 9 2.</_></rects>
      <tilted>0</tilted></_>
    <_>
      <rects>
        <_>
          7 6 7 9 -1.</_>
        <_>
          7 9 7 3 3.</_></rects>
      <tilted>0</tilted></_>
    <_>
      <rects>
        <_>
          7 22 42 8 -1.</_>
        <_>
          7 26 42 4 2.</_></rects>
      <tilted>0</tilted></_>
    <_>
      <rects>
        <_>
          7 22 50 8 -1.</_>
        <_>
          7 26 50 4 2.</_></rects>
      <tilted>0</tilted></_>
    <_>
      <rects>
        <_>
          8 0 9 1 -1.</_>
        <_>
          11 0 3 1 3.</_></rects>
      <tilted>0</tilted></_>
    <_>
      <rects>
        <_>
          9 3 15 8 -1.</_>
        <_>
          14 3 5 8 3.</_></rects>
      <tilted>0</tilted></_>
    <_>
      <rects>
        <_>
          9 23 4 4 -1.</_>
        <_>
          9 23 2 2 2.</_>
        <_>
          11 25 2 2 2.</_></rects>
      <tilted>0</tilted></_>
    <_>
      <rects>
        <_>
          10 12 3 11 -1.</_>
        <_>
          11 12 1 11 3.</_></rects>
      <tilted>0</tilted></_>
    <_>
      <rects>
        <_>
          11 3 3 21 -1.</_>
        <_>
          11 10 3 7 3.</_></rects>
      <tilted>0</tilted></_>
    <_>
      <rects>
        <_>
          12 2 28 24 -1.</_>
        <_>
          12 2 14 12 2.</_>
        <_>
          26 14 14 12 2.</_></rects>
      <tilted>0</tilted></_>
    <_>
      <rects>
        <_>
          12 5 3 8 -1.</_>
        <_>
          13 5 1 8 3.</_></rects>
      <tilted>0</tilted></_>
    <_>
      <rects>
        <_>
          12 16 21 2 -1.</_>
        <_>
          19 16 7 2 3.</_></rects>
      <tilted>0</tilted></_>
    <_>
      <rects>
        <_>
          13 4 46 18 -1.</_>
        <_>
          13 10 46 6 3.</_></rects>
      <tilted>0</tilted></_>
    <_>
      <rects>
        <_>
          13 10 42 10 -1.</_>
        <_>
          27 10 14 10 3.</_></rects>
      <tilted>0</tilted></_>
    <_>
      <rects>
        <_>
          14 12 6 6 -1.</_>
        <_>
          16 12 2 6 3.</_></rects>
      <tilted>0</tilted></_>
    <_>
      <rects>
        <_>
          14 17 10 2 -1.</_>
        <_>
          19 17 5 2 2.</_></rects>
      <tilted>0</tilted></_>
    <_>
      <rects>
        <_>
          16 24 41 6 -1.</_>
        <_>
          16 26 41 2 3.</_></rects>
      <tilted>0</tilted></_>
    <_>
      <rects>
        <_>
          17 1 3 15 -1.</_>
        <_>
          17 6 3 5 3.</_></rects>
      <tilted>0</tilted></_>
    <_>
      <rects>
        <_>
          17 8 24 11 -1.</_>
        <_>
          25 8 8 11 3.</_></rects>
      <tilted>0</tilted></_>
    <_>
      <rects>
        <_>
          17 20 6 9 -1.</_>
        <_>
          19 20 2 9 3.</_></rects>
      <tilted>0</tilted></_>
    <_>
      <rects>
        <_>
          18 16 2 7 -1.</_>
        <_>
          19 16 1 7 2.</_></rects>
      <tilted>0</tilted></_>
    <_>
      <rects>
        <_>
          18 21 2 8 -1.</_>
        <_>
          19 21 1 8 2.</_></rects>
      <tilted>0</tilted></_>
    <_>
      <rects>
        <_>
          18 23 6 3 -1.</_>
        <_>
          18 24 6 1 3.</_></rects>
      <tilted>0</tilted></_>
    <_>
      <rects>
        <_>
          19 0 3 29 -1.</_>
        <_>
          20 0 1 29 3.</_></rects>
      <tilted>0</tilted></_>
    <_>
      <rects>
        <_>
          19 16 3 9 -1.</_>
        <_>
          20 16 1 9 3.</_></rects>
      <tilted>0</tilted></_>
    <_>
      <rects>
        <_>
          19 27 3 1 -1.</_>
        <_>
          20 27 1 1 3.</_></rects>
      <tilted>0</tilted></_>
    <_>
      <rects>
        <_>
          22 12 2 2 -1.</_>
        <_>
          22 13 2 1 2.</_></rects>
      <tilted>0</tilted></_>
    <_>
      <rects>
        <_>
          23 9 9 10 -1.</_>
        <_>
          26 9 3 10 3.</_></rects>
      <tilted>0</tilted></_>
    <_>
      <rects>
        <_>
          24 23 33 7 -1.</_>
        <_>
          35 23 11 7 3.</_></rects>
      <tilted>0</tilted></_>
    <_>
      <rects>
        <_>
          24 23 36 6 -1.</_>
        <_>
          24 26 36 3 2.</_></rects>
      <tilted>0</tilted></_>
    <_>
      <rects>
        <_>
          27 3 1 2 -1.</_>
        <_>
          27 4 1 1 2.</_></rects>
      <tilted>0</tilted></_>
    <_>
      <rects>
        <_>
          29 18 3 1 -1.</_>
        <_>
          30 18 1 1 3.</_></rects>
      <tilted>0</tilted></_>
    <_>
      <rects>
        <_>
          32 2 6 19 -1.</_>
        <_>
          34 2 2 19 3.</_></rects>
      <tilted>0</tilted></_>
    <_>
      <rects>
        <_>
          33 24 12 1 -1.</_>
        <_>
          39 24 6 1 2.</_></rects>
      <tilted>0</tilted></_>
    <_>
      <rects>
        <_>
          34 24 21 5 -1.</_>
        <_>
          41 24 7 5 3.</_></rects>
      <tilted>0</tilted></_>
    <_>
      <rects>
        <_>
          35 24 21 6 -1.</_>
        <_>
          35 27 21 3 2.</_></rects>
      <tilted>0</tilted></_>
    <_>
      <rects>
        <_>
          38 9 10 7 -1.</_>
        <_>
          43 9 5 7 2.</_></rects>
      <tilted>0</tilted></_>
    <_>
      <rects>
        <_>
          38 26 16 4 -1.</_>
        <_>
          38 28 16 2 2.</_></rects>
      <tilted>0</tilted></_>
    <_>
      <rects>
        <_>
          39 1 1 2 -1.</_>
        <_>
          39 2 1 1 2.</_></rects>
      <tilted>0</tilted></_>
    <_>
      <rects>
        <_>
          39 12 1 2 -1.</_>
        <_>
          39 13 1 1 2.</_></rects>
      <tilted>0</tilted></_>
    <_>
      <rects>
        <_>
          40 1 3 10 -1.</_>
        <_>
          40 6 3 5 2.</_></rects>
      <tilted>0</tilted></_>
    <_>
      <rects>
        <_>
          40 8 3 22 -1.</_>
        <_>
          41 8 1 22 3.</_></rects>
      <tilted>0</tilted></_>
    <_>
      <rects>
        <_>
          40 8 4 4 -1.</_>
        <_>
          40 10 4 2 2.</_></rects>
      <tilted>0</tilted></_>
    <_>
      <rects>
        <_>
          40 9 20 15 -1.</_>
        <_>
          50 9 10 15 2.</_></rects>
      <tilted>0</tilted></_>
    <_>
      <rects>
        <_>
          41 20 1 9 -1.</_>
        <_>
          41 23 1 3 3.</_></rects>
      <tilted>0</tilted></_></features></cascade>
</opencv_storage>
