<?xml version="1.0"?>
<opencv_storage>
<cascade>
  <stageType>BOOST</stageType>
  <featureType>HAAR</featureType>
  <height>42</height>
  <width>80</width>
  <stageParams>
    <boostType>GAB</boostType>
    <minHitRate>9.9500000476837158e-01</minHitRate>
    <maxFalseAlarm>5.0000000000000000e-01</maxFalseAlarm>
    <weightTrimRate>9.4999999999999996e-01</weightTrimRate>
    <maxDepth>1</maxDepth>
    <maxWeakCount>100</maxWeakCount></stageParams>
  <featureParams>
    <maxCatCount>0</maxCatCount>
    <featSize>1</featSize>
    <mode>BASIC</mode></featureParams>
  <stageNum>17</stageNum>
  <stages>
    <!-- stage 0 -->
    <_>
      <maxWeakCount>2</maxWeakCount>
      <stageThreshold>-6.6585868597030640e-01</stageThreshold>
      <weakClassifiers>
        <_>
          <internalNodes>
            0 -1 31 -4.5564927160739899e-02</internalNodes>
          <leafValues>
            6.0000002384185791e-01 -9.4917786121368408e-01</leafValues></_>
        <_>
          <internalNodes>
            0 -1 21 -9.9182374775409698e-02</internalNodes>
          <leafValues>
            2.8331920504570007e-01 -9.9526214599609375e-01</leafValues></_></weakClassifiers></_>
    <!-- stage 1 -->
    <_>
      <maxWeakCount>3</maxWeakCount>
      <stageThreshold>-1.6888711452484131e+00</stageThreshold>
      <weakClassifiers>
        <_>
          <internalNodes>
            0 -1 15 -8.3812009543180466e-03</internalNodes>
          <leafValues>
            3.6000001430511475e-01 -9.4020926952362061e-01</leafValues></_>
        <_>
          <internalNodes>
            0 -1 3 -2.6483278721570969e-02</internalNodes>
          <leafValues>
            1.3946616649627686e-01 -9.7691082954406738e-01</leafValues></_>
        <_>
          <internalNodes>
            0 -1 36 -3.0172679573297501e-02</internalNodes>
          <leafValues>
            4.0569332242012024e-01 -8.8812804222106934e-01</leafValues></_></weakClassifiers></_>
    <!-- stage 2 -->
    <_>
      <maxWeakCount>3</maxWeakCount>
      <stageThreshold>-1.7020188570022583e+00</stageThreshold>
      <weakClassifiers>
        <_>
          <internalNodes>
            0 -1 34 5.5287862196564674e-03</internalNodes>
          <leafValues>
            -9.2899405956268311e-01 4.4444444775581360e-01</leafValues></_>
        <_>
          <internalNodes>
            0 -1 27 2.4374278262257576e-02</internalNodes>
          <leafValues>
            -8.8389670848846436e-01 1.7063094675540924e-01</leafValues></_>
        <_>
          <internalNodes>
            0 -1 41 -1.1114333756268024e-03</internalNodes>
          <leafValues>
            2.4016116559505463e-01 -9.4365572929382324e-01</leafValues></_></weakClassifiers></_>
    <!-- stage 3 -->
    <_>
      <maxWeakCount>3</maxWeakCount>
      <stageThreshold>-1.5687420368194580e+00</stageThreshold>
      <weakClassifiers>
        <_>
          <internalNodes>
            0 -1 38 9.0135959908366203e-04</internalNodes>
          <leafValues>
            -9.4753086566925049e-01 -1.3043478131294250e-01</leafValues></_>
        <_>
          <internalNodes>
            0 -1 22 -1.9110417924821377e-03</internalNodes>
          <leafValues>
            2.9641294479370117e-01 -7.8716301918029785e-01</leafValues></_>
        <_>
          <internalNodes>
            0 -1 24 -6.5777095733210444e-04</internalNodes>
          <leafValues>
            2.7432784438133240e-01 -9.1762405633926392e-01</leafValues></_></weakClassifiers></_>
    <!-- stage 4 -->
    <_>
      <maxWeakCount>4</maxWeakCount>
      <stageThreshold>-2.1857414245605469e+00</stageThreshold>
      <weakClassifiers>
        <_>
          <internalNodes>
            0 -1 32 -8.5994107648730278e-03</internalNodes>
          <leafValues>
            1.1999999731779099e-01 -9.3124067783355713e-01</leafValues></_>
        <_>
          <internalNodes>
            0 -1 49 1.6713060904294252e-03</internalNodes>
          <leafValues>
            -8.6973172426223755e-01 -2.6560915634036064e-02</leafValues></_>
        <_>
          <internalNodes>
            0 -1 7 -2.7468079701066017e-02</internalNodes>
          <leafValues>
            2.9977071285247803e-01 -7.9322886466979980e-01</leafValues></_>
        <_>
          <internalNodes>
            0 -1 14 -2.6352793793193996e-04</internalNodes>
          <leafValues>
            4.0845975279808044e-01 -7.2582775354385376e-01</leafValues></_></weakClassifiers></_>
    <!-- stage 5 -->
    <_>
      <maxWeakCount>5</maxWeakCount>
      <stageThreshold>-1.8563473224639893e+00</stageThreshold>
      <weakClassifiers>
        <_>
          <internalNodes>
            0 -1 58 -8.6559040937572718e-04</internalNodes>
          <leafValues>
            3.7500000000000000e-01 -9.2330384254455566e-01</leafValues></_>
        <_>
          <internalNodes>
            0 -1 51 -8.8218059390783310e-03</internalNodes>
          <leafValues>
            2.2783052921295166e-01 -8.2076007127761841e-01</leafValues></_>
        <_>
          <internalNodes>
            0 -1 19 -3.7153179291635752e-03</internalNodes>
          <leafValues>
            4.4046157598495483e-01 -7.6125776767730713e-01</leafValues></_>
        <_>
          <internalNodes>
            0 -1 23 4.4075017794966698e-03</internalNodes>
          <leafValues>
            -8.2593339681625366e-01 3.6166214942932129e-01</leafValues></_>
        <_>
          <internalNodes>
            0 -1 48 7.6365722343325615e-03</internalNodes>
          <leafValues>
            -1. 2.8731217980384827e-01</leafValues></_></weakClassifiers></_>
    <!-- stage 6 -->
    <_>
      <maxWeakCount>4</maxWeakCount>
      <stageThreshold>-2.1441278457641602e+00</stageThreshold>
      <weakClassifiers>
        <_>
          <internalNodes>
            0 -1 9 1.2880486436188221e-02</internalNodes>
          <leafValues>
            -9.2093706130981445e-01 8.1818181276321411e-01</leafValues></_>
        <_>
          <internalNodes>
            0 -1 40 8.5973809473216534e-04</internalNodes>
          <leafValues>
            -7.5756144523620605e-01 5.5319464206695557e-01</leafValues></_>
        <_>
          <internalNodes>
            0 -1 6 5.1571387302828953e-05</internalNodes>
          <leafValues>
            -7.5004678964614868e-01 4.0815636515617371e-01</leafValues></_>
        <_>
          <internalNodes>
            0 -1 42 3.4119863994419575e-03</internalNodes>
          <leafValues>
            2.8441751003265381e-01 -1.</leafValues></_></weakClassifiers></_>
    <!-- stage 7 -->
    <_>
      <maxWeakCount>3</maxWeakCount>
      <stageThreshold>-1.4646798372268677e+00</stageThreshold>
      <weakClassifiers>
        <_>
          <internalNodes>
            0 -1 2 1.3681643642485142e-02</internalNodes>
          <leafValues>
            -9.2647057771682739e-01 7.1428573131561279e-01</leafValues></_>
        <_>
          <internalNodes>
            0 -1 17 -5.0067459233105183e-03</internalNodes>
          <leafValues>
            2.7136391401290894e-01 -8.5318297147750854e-01</leafValues></_>
        <_>
          <internalNodes>
            0 -1 8 -7.7564031817018986e-03</internalNodes>
          <leafValues>
            4.3061736226081848e-01 -8.0957317352294922e-01</leafValues></_></weakClassifiers></_>
    <!-- stage 8 -->
    <_>
      <maxWeakCount>4</maxWeakCount>
      <stageThreshold>-1.9360678195953369e+00</stageThreshold>
      <weakClassifiers>
        <_>
          <internalNodes>
            0 -1 13 5.7407286949455738e-03</internalNodes>
          <leafValues>
            -9.3471807241439819e-01 5.0000000000000000e-01</leafValues></_>
        <_>
          <internalNodes>
            0 -1 56 -2.0042015239596367e-03</internalNodes>
          <leafValues>
            5.4512733221054077e-01 -7.3178213834762573e-01</leafValues></_>
        <_>
          <internalNodes>
            0 -1 25 -2.2806145716458559e-04</internalNodes>
          <leafValues>
            4.4164174795150757e-01 -6.8057191371917725e-01</leafValues></_>
        <_>
          <internalNodes>
            0 -1 12 -1.1478741362225264e-04</internalNodes>
          <leafValues>
            4.1100430488586426e-01 -7.9325383901596069e-01</leafValues></_></weakClassifiers></_>
    <!-- stage 9 -->
    <_>
      <maxWeakCount>3</maxWeakCount>
      <stageThreshold>-1.3371009826660156e+00</stageThreshold>
      <weakClassifiers>
        <_>
          <internalNodes>
            0 -1 54 1.3451398909091949e-01</internalNodes>
          <leafValues>
            -9.1824817657470703e-01 1.</leafValues></_>
        <_>
          <internalNodes>
            0 -1 53 -3.9590829983353615e-03</internalNodes>
          <leafValues>
            7.2506761550903320e-01 -7.1656310558319092e-01</leafValues></_>
        <_>
          <internalNodes>
            0 -1 4 -2.8666950762271881e-02</internalNodes>
          <leafValues>
            2.9771026968955994e-01 -9.6922165155410767e-01</leafValues></_></weakClassifiers></_>
    <!-- stage 10 -->
    <_>
      <maxWeakCount>5</maxWeakCount>
      <stageThreshold>-1.5494034290313721e+00</stageThreshold>
      <weakClassifiers>
        <_>
          <internalNodes>
            0 -1 1 2.6917628943920135e-02</internalNodes>
          <leafValues>
            -9.1812866926193237e-01 8.0000001192092896e-01</leafValues></_>
        <_>
          <internalNodes>
            0 -1 5 -7.4629597365856171e-03</internalNodes>
          <leafValues>
            6.1877667903900146e-01 -7.2832804918289185e-01</leafValues></_>
        <_>
          <internalNodes>
            0 -1 29 -1.5499340952374041e-04</internalNodes>
          <leafValues>
            4.0679040551185608e-01 -7.0731937885284424e-01</leafValues></_>
        <_>
          <internalNodes>
            0 -1 43 2.5184321566484869e-04</internalNodes>
          <leafValues>
            3.3294624090194702e-01 -8.9079922437667847e-01</leafValues></_>
        <_>
          <internalNodes>
            0 -1 60 1.2082168541382998e-04</internalNodes>
          <leafValues>
            -6.3068360090255737e-01 5.8106207847595215e-01</leafValues></_></weakClassifiers></_>
    <!-- stage 11 -->
    <_>
      <maxWeakCount>3</maxWeakCount>
      <stageThreshold>-1.8892743587493896e+00</stageThreshold>
      <weakClassifiers>
        <_>
          <internalNodes>
            0 -1 35 -6.7790346220135689e-03</internalNodes>
          <leafValues>
            5.2941179275512695e-01 -9.2909896373748779e-01</leafValues></_>
        <_>
          <internalNodes>
            0 -1 20 -1.4848062396049500e-01</internalNodes>
          <leafValues>
            -9.5762336254119873e-01 -1.4880606904625893e-02</leafValues></_>
        <_>
          <internalNodes>
            0 -1 26 3.4094533475581557e-05</internalNodes>
          <leafValues>
            1.9250862300395966e-01 -9.4529479742050171e-01</leafValues></_></weakClassifiers></_>
    <!-- stage 12 -->
    <_>
      <maxWeakCount>4</maxWeakCount>
      <stageThreshold>-1.9106307029724121e+00</stageThreshold>
      <weakClassifiers>
        <_>
          <internalNodes>
            0 -1 59 1.5802208334207535e-02</internalNodes>
          <leafValues>
            -9.1266375780105591e-01 1.</leafValues></_>
        <_>
          <internalNodes>
            0 -1 18 1.5550252282992005e-04</internalNodes>
          <leafValues>
            -7.7105998992919922e-01 1.5925776958465576e-01</leafValues></_>
        <_>
          <internalNodes>
            0 -1 46 -5.2321942348498851e-05</internalNodes>
          <leafValues>
            3.1589323282241821e-01 -7.3229193687438965e-01</leafValues></_>
        <_>
          <internalNodes>
            0 -1 33 -2.0050504244863987e-03</internalNodes>
          <leafValues>
            5.4885214567184448e-01 -5.4280012845993042e-01</leafValues></_></weakClassifiers></_>
    <!-- stage 13 -->
    <_>
      <maxWeakCount>5</maxWeakCount>
      <stageThreshold>-1.6020475625991821e+00</stageThreshold>
      <weakClassifiers>
        <_>
          <internalNodes>
            0 -1 50 2.4703245609998703e-02</internalNodes>
          <leafValues>
            -9.1266375780105591e-01 1.</leafValues></_>
        <_>
          <internalNodes>
            0 -1 16 2.1878080442547798e-03</internalNodes>
          <leafValues>
            -7.2811084985733032e-01 5.3928309679031372e-01</leafValues></_>
        <_>
          <internalNodes>
            0 -1 52 6.4836484380066395e-03</internalNodes>
          <leafValues>
            -6.8177717924118042e-01 3.5709685087203979e-01</leafValues></_>
        <_>
          <internalNodes>
            0 -1 39 -6.1327330768108368e-03</internalNodes>
          <leafValues>
            4.1944646835327148e-01 -6.2857383489608765e-01</leafValues></_>
        <_>
          <internalNodes>
            0 -1 44 -6.6604407038539648e-05</internalNodes>
          <leafValues>
            3.1020399928092957e-01 -8.5060423612594604e-01</leafValues></_></weakClassifiers></_>
    <!-- stage 14 -->
    <_>
      <maxWeakCount>3</maxWeakCount>
      <stageThreshold>-1.5405640602111816e+00</stageThreshold>
      <weakClassifiers>
        <_>
          <internalNodes>
            0 -1 57 1.1274534277617931e-02</internalNodes>
          <leafValues>
            -9.1266375780105591e-01 1.</leafValues></_>
        <_>
          <internalNodes>
            0 -1 37 -1.5661922516301274e-03</internalNodes>
          <leafValues>
            1.6835299134254456e-01 -8.7342017889022827e-01</leafValues></_>
        <_>
          <internalNodes>
            0 -1 28 1.7448409926146269e-03</internalNodes>
          <leafValues>
            -7.9625326395034790e-01 3.6258271336555481e-01</leafValues></_></weakClassifiers></_>
    <!-- stage 15 -->
    <_>
      <maxWeakCount>3</maxWeakCount>
      <stageThreshold>-1.2929542064666748e+00</stageThreshold>
      <weakClassifiers>
        <_>
          <internalNodes>
            0 -1 55 -5.7748612016439438e-03</internalNodes>
          <leafValues>
            6.3636362552642822e-01 -9.1800880432128906e-01</leafValues></_>
        <_>
          <internalNodes>
            0 -1 10 -4.1757686994969845e-03</internalNodes>
          <leafValues>
            4.1194331645965576e-01 -7.6682615280151367e-01</leafValues></_>
        <_>
          <internalNodes>
            0 -1 30 2.8829984366893768e-03</internalNodes>
          <leafValues>
            -7.8688871860504150e-01 4.7551816701889038e-01</leafValues></_></weakClassifiers></_>
    <!-- stage 16 -->
    <_>
      <maxWeakCount>4</maxWeakCount>
      <stageThreshold>-2.0792753696441650e+00</stageThreshold>
      <weakClassifiers>
        <_>
          <internalNodes>
            0 -1 11 -1.0400502383708954e-01</internalNodes>
          <leafValues>
            7.7777779102325439e-01 -9.1532844305038452e-01</leafValues></_>
        <_>
          <internalNodes>
            0 -1 47 1.4049863815307617e-01</internalNodes>
          <leafValues>
            -8.1848812103271484e-01 2.3995441198348999e-01</leafValues></_>
        <_>
          <internalNodes>
            0 -1 0 -6.9491997361183167e-02</internalNodes>
          <leafValues>
            4.2183423042297363e-01 -7.3703485727310181e-01</leafValues></_>
        <_>
          <internalNodes>
            0 -1 45 -1.0210012987954542e-05</internalNodes>
          <leafValues>
            -7.3829609155654907e-01 3.9157596230506897e-01</leafValues></_></weakClassifiers></_></stages>
  <features>
    <_>
      <rects>
        <_>
          0 0 48 22 -1.</_>
        <_>
          16 0 16 22 3.</_></rects>
      <tilted>0</tilted></_>
    <_>
      <rects>
        <_>
          0 12 8 21 -1.</_>
        <_>
          0 19 8 7 3.</_></rects>
      <tilted>0</tilted></_>
    <_>
      <rects>
        <_>
          0 13 20 15 -1.</_>
        <_>
          0 18 20 5 3.</_></rects>
      <tilted>0</tilted></_>
    <_>
      <rects>
        <_>
          0 14 26 17 -1.</_>
        <_>
          13 14 13 17 2.</_></rects>
      <tilted>0</tilted></_>
    <_>
      <rects>
        <_>
          0 20 54 10 -1.</_>
        <_>
          18 20 18 10 3.</_></rects>
      <tilted>0</tilted></_>
    <_>
      <rects>
        <_>
          1 0 12 8 -1.</_>
        <_>
          5 0 4 8 3.</_></rects>
      <tilted>0</tilted></_>
    <_>
      <rects>
        <_>
          1 20 2 12 -1.</_>
        <_>
          1 20 1 6 2.</_>
        <_>
          2 26 1 6 2.</_></rects>
      <tilted>0</tilted></_>
    <_>
      <rects>
        <_>
          3 17 33 25 -1.</_>
        <_>
          14 17 11 25 3.</_></rects>
      <tilted>0</tilted></_>
    <_>
      <rects>
        <_>
          4 1 24 24 -1.</_>
        <_>
          4 9 24 8 3.</_></rects>
      <tilted>0</tilted></_>
    <_>
      <rects>
        <_>
          5 13 7 18 -1.</_>
        <_>
          5 19 7 6 3.</_></rects>
      <tilted>0</tilted></_>
    <_>
      <rects>
        <_>
          5 18 20 12 -1.</_>
        <_>
          5 22 20 4 3.</_></rects>
      <tilted>0</tilted></_>
    <_>
      <rects>
        <_>
          5 29 52 9 -1.</_>
        <_>
          31 29 26 9 2.</_></rects>
      <tilted>0</tilted></_>
    <_>
      <rects>
        <_>
          6 24 3 9 -1.</_>
        <_>
          6 27 3 3 3.</_></rects>
      <tilted>0</tilted></_>
    <_>
      <rects>
        <_>
          7 0 10 6 -1.</_>
        <_>
          12 0 5 6 2.</_></rects>
      <tilted>0</tilted></_>
    <_>
      <rects>
        <_>
          7 26 22 8 -1.</_>
        <_>
          7 26 11 4 2.</_>
        <_>
          18 30 11 4 2.</_></rects>
      <tilted>0</tilted></_>
    <_>
      <rects>
        <_>
          8 1 6 26 -1.</_>
        <_>
          8 1 3 13 2.</_>
        <_>
          11 14 3 13 2.</_></rects>
      <tilted>0</tilted></_>
    <_>
      <rects>
        <_>
          8 7 8 3 -1.</_>
        <_>
          12 7 4 3 2.</_></rects>
      <tilted>0</tilted></_>
    <_>
      <rects>
        <_>
          8 36 12 5 -1.</_>
        <_>
          14 36 6 5 2.</_></rects>
      <tilted>0</tilted></_>
    <_>
      <rects>
        <_>
          10 1 2 12 -1.</_>
        <_>
          10 1 1 6 2.</_>
        <_>
          11 7 1 6 2.</_></rects>
      <tilted>0</tilted></_>
    <_>
      <rects>
        <_>
          11 6 24 6 -1.</_>
        <_>
          19 6 8 6 3.</_></rects>
      <tilted>0</tilted></_>
    <_>
      <rects>
        <_>
          14 0 64 40 -1.</_>
        <_>
          14 20 64 20 2.</_></rects>
      <tilted>0</tilted></_>
    <_>
      <rects>
        <_>
          14 1 57 39 -1.</_>
        <_>
          14 14 57 13 3.</_></rects>
      <tilted>0</tilted></_>
    <_>
      <rects>
        <_>
          14 3 10 8 -1.</_>
        <_>
          14 3 5 4 2.</_>
        <_>
          19 7 5 4 2.</_></rects>
      <tilted>0</tilted></_>
    <_>
      <rects>
        <_>
          14 35 51 6 -1.</_>
        <_>
          14 38 51 3 2.</_></rects>
      <tilted>0</tilted></_>
    <_>
      <rects>
        <_>
          16 23 27 2 -1.</_>
        <_>
          25 23 9 2 3.</_></rects>
      <tilted>0</tilted></_>
    <_>
      <rects>
        <_>
          17 8 12 1 -1.</_>
        <_>
          21 8 4 1 3.</_></rects>
      <tilted>0</tilted></_>
    <_>
      <rects>
        <_>
          18 39 9 3 -1.</_>
        <_>
          21 39 3 3 3.</_></rects>
      <tilted>0</tilted></_>
    <_>
      <rects>
        <_>
          19 32 56 10 -1.</_>
        <_>
          19 37 56 5 2.</_></rects>
      <tilted>0</tilted></_>
    <_>
      <rects>
        <_>
          20 14 22 14 -1.</_>
        <_>
          20 14 11 7 2.</_>
        <_>
          31 21 11 7 2.</_></rects>
      <tilted>0</tilted></_>
    <_>
      <rects>
        <_>
          21 0 22 4 -1.</_>
        <_>
          21 0 11 2 2.</_>
        <_>
          32 2 11 2 2.</_></rects>
      <tilted>0</tilted></_>
    <_>
      <rects>
        <_>
          22 22 26 12 -1.</_>
        <_>
          22 22 13 6 2.</_>
        <_>
          35 28 13 6 2.</_></rects>
      <tilted>0</tilted></_>
    <_>
      <rects>
        <_>
          25 1 19 27 -1.</_>
        <_>
          25 10 19 9 3.</_></rects>
      <tilted>0</tilted></_>
    <_>
      <rects>
        <_>
          29 15 12 17 -1.</_>
        <_>
          33 15 4 17 3.</_></rects>
      <tilted>0</tilted></_>
    <_>
      <rects>
        <_>
          30 3 12 13 -1.</_>
        <_>
          34 3 4 13 3.</_></rects>
      <tilted>0</tilted></_>
    <_>
      <rects>
        <_>
          30 38 46 4 -1.</_>
        <_>
          30 38 23 2 2.</_>
        <_>
          53 40 23 2 2.</_></rects>
      <tilted>0</tilted></_>
    <_>
      <rects>
        <_>
          32 6 9 23 -1.</_>
        <_>
          35 6 3 23 3.</_></rects>
      <tilted>0</tilted></_>
    <_>
      <rects>
        <_>
          34 28 42 13 -1.</_>
        <_>
          48 28 14 13 3.</_></rects>
      <tilted>0</tilted></_>
    <_>
      <rects>
        <_>
          37 5 6 6 -1.</_>
        <_>
          37 8 6 3 2.</_></rects>
      <tilted>0</tilted></_>
    <_>
      <rects>
        <_>
          37 17 4 6 -1.</_>
        <_>
          39 17 2 6 2.</_></rects>
      <tilted>0</tilted></_>
    <_>
      <rects>
        <_>
          38 0 42 6 -1.</_>
        <_>
          52 0 14 6 3.</_></rects>
      <tilted>0</tilted></_>
    <_>
      <rects>
        <_>
          39 18 6 6 -1.</_>
        <_>
          41 18 2 6 3.</_></rects>
      <tilted>0</tilted></_>
    <_>
      <rects>
        <_>
          41 10 27 4 -1.</_>
        <_>
          50 10 9 4 3.</_></rects>
      <tilted>0</tilted></_>
    <_>
      <rects>
        <_>
          41 29 20 13 -1.</_>
        <_>
          51 29 10 13 2.</_></rects>
      <tilted>0</tilted></_>
    <_>
      <rects>
        <_>
          42 12 12 9 -1.</_>
        <_>
          46 12 4 9 3.</_></rects>
      <tilted>0</tilted></_>
    <_>
      <rects>
        <_>
          42 26 16 6 -1.</_>
        <_>
          42 28 16 2 3.</_></rects>
      <tilted>0</tilted></_>
    <_>
      <rects>
        <_>
          45 20 24 6 -1.</_>
        <_>
          45 23 24 3 2.</_></rects>
      <tilted>0</tilted></_>
    <_>
      <rects>
        <_>
          49 28 4 10 -1.</_>
        <_>
          49 28 2 5 2.</_>
        <_>
          51 33 2 5 2.</_></rects>
      <tilted>0</tilted></_>
    <_>
      <rects>
        <_>
          54 8 26 33 -1.</_>
        <_>
          67 8 13 33 2.</_></rects>
      <tilted>0</tilted></_>
    <_>
      <rects>
        <_>
          55 15 24 10 -1.</_>
        <_>
          67 15 12 10 2.</_></rects>
      <tilted>0</tilted></_>
    <_>
      <rects>
        <_>
          55 34 6 8 -1.</_>
        <_>
          55 38 6 4 2.</_></rects>
      <tilted>0</tilted></_>
    <_>
      <rects>
        <_>
          57 12 22 3 -1.</_>
        <_>
          68 12 11 3 2.</_></rects>
      <tilted>0</tilted></_>
    <_>
      <rects>
        <_>
          59 0 21 13 -1.</_>
        <_>
          66 0 7 13 3.</_></rects>
      <tilted>0</tilted></_>
    <_>
      <rects>
        <_>
          64 0 12 40 -1.</_>
        <_>
          64 0 6 20 2.</_>
        <_>
          70 20 6 20 2.</_></rects>
      <tilted>0</tilted></_>
    <_>
      <rects>
        <_>
          65 4 12 4 -1.</_>
        <_>
          71 4 6 4 2.</_></rects>
      <tilted>0</tilted></_>
    <_>
      <rects>
        <_>
          65 4 14 38 -1.</_>
        <_>
          72 4 7 38 2.</_></rects>
      <tilted>0</tilted></_>
    <_>
      <rects>
        <_>
          66 31 8 9 -1.</_>
        <_>
          66 34 8 3 3.</_></rects>
      <tilted>0</tilted></_>
    <_>
      <rects>
        <_>
          67 0 12 6 -1.</_>
        <_>
          67 0 6 3 2.</_>
        <_>
          73 3 6 3 2.</_></rects>
      <tilted>0</tilted></_>
    <_>
      <rects>
        <_>
          67 24 12 12 -1.</_>
        <_>
          67 28 12 4 3.</_></rects>
      <tilted>0</tilted></_>
    <_>
      <rects>
        <_>
          68 33 1 9 -1.</_>
        <_>
          68 36 1 3 3.</_></rects>
      <tilted>0</tilted></_>
    <_>
      <rects>
        <_>
          70 6 4 33 -1.</_>
        <_>
          72 6 2 33 2.</_></rects>
      <tilted>0</tilted></_>
    <_>
      <rects>
        <_>
          77 9 1 12 -1.</_>
        <_>
          77 13 1 4 3.</_></rects>
      <tilted>0</tilted></_></features></cascade>
</opencv_storage>
